0.0
-0.000952663392109
-0.0688064046083
0.0915313364444
0.0
-0.0361722446528
-0.0865940307264
0.110059009987
-0.213002574954
-0.106133841221
0.191944925572
-0.0856379397379
-0.106306985834
0.458814754493
-0.00516819859936
-0.0474431468877
0.0603178384252
0.0148776730189
0.208677325274
0.129030392788
-0.000969455695443
0.027853170061
0.228274286195
-0.149505539453
-0.0212609401175
-0.0263784753012
-0.0192136626918
0.0377476673568
-0.0283984808961
0.0668396621562
0.0805679162046
0.0202416171441
0.114218074053
0.134913235172
0.0782295227877
0.0210678044807
0.149202779377
0.0157579923922
0.0825350919167
0.018886424476
0.0272581485324
-0.0174190683438
-0.0180581301596
0.0141036676058
0.169714130829
-0.0269831581796
0.0395009145389
0.00871972459427
0.0718765610101
0.0543403146082
-0.0514443247414
0.038748711564
0.0136877553425
0.0956005780399
-0.0528309989041
0.0206872281664
0.0164206591436
-0.034151305432
0.0273973046631
0.0192945261458
0.158156932311
0.0953475563844
0.0283938222547
0.14000750939
0.0271877988282
-0.000302014412246
0.106925187295
0.0775857771467
0.0840705078001
-0.0050217095111
0.0313699756203
0.0237895252294
0.038475148419
0.00921861270105
-0.135969420073
-0.00503299129468
-0.00267429980668
-0.00121628126207
0.0512621583083
0.0260684839836
0.094295047116
-0.0685008202557
0.00420238547624
0.0727791681579
0.0442589978064
0.0200749614673
-0.00779144311242
-0.0267403685334
-0.044559111902
0.0273400630114
0.0301499441068
0.0142091399042
0.0
0.0257552610769
0.0816953302688
-0.0244307960807
-0.0825190367788
-0.000274776530952
-0.000158568642292
-0.000526700850355
-0.0150023925365
-0.0213529375082
-0.0001862447374
-0.00107512217365
-0.0316240681081
-0.0848324698789
-0.0144182440084
-0.00960850231281
-0.000475807645942
-0.00177769378766
0.0915816267629
0.0900727834343
0.194182389768
-0.000131660337989
-0.00385601220964
-0.000555237769966
-0.0151645442322
-0.00368732868395
-0.000467775886944
0.0
-0.00118264536774
-0.000189515733361
-0.000169518903825
-0.0792474763471
-0.0179157672323
-0.0314190134689
0.0265795082277
-0.035398456488
-0.0303919784503
-2.32056250435e-05
-0.000360061923301
-0.000441822325328
-0.0644868275341
0.190322496213
-0.0619144219526
0.114007435167
-0.0181091394929
0.0603408599137
0.0841032990452
-0.0381043919517
0.0286638689122
-0.0574605620137
-0.0244252597418
-0.0255957453785
0.0326154267285
0.0324834224843
-0.0394306479707
-0.158411557882
-0.0349628663027
-0.0538218461892
-0.058478957934
0.0
-0.15596557109
0.0
0.0
0.0
-0.0244525262331
0.0
-0.124612739242
0.166962854887
0.0
0.0
0.0
-0.0416939290172
-0.0534801839898
0.0
0.0
0.0
0.0
0.187350308389
0.0
0.0
0.0
-0.0624437564663
0.184625115387
-0.140271174486
0.0
0.119462144564
0.0
0.0
-0.106933439329
0.0
0.0
0.0
0.0
0.0
0.0
0.0
0.0
0.0
0.0
0.0
0.0
0.0
0.0
0.0
0.0
-0.166382977318
-0.0297158758796
0.0
-0.232576134847
0.138860071266
0.226199089782
-0.171881655113
0.177428468486
0.0
0.0
0.0
0.0
0.0
0.163912235936
-0.152684138261
0.0
-0.0231754194449
0.0
-0.189305003541
0.031584842795
0.0
0.0
0.0
0.0
0.0
0.0
-0.213188705399
0.0
-0.0338595991949
0.0
0.147297990546
0.00677250422178
-0.057267132635
0.0
0.112253278362
-0.0434433905618
0.0900166257512
0.0
0.00583855657768
0.101761781055
0.0309071307378
0.0
0.0
0.0
0.00575723166933
0.110488120245
-0.0248551670935
-0.132479435689
-0.000317252713437
-0.00184510290103
-0.0570976779039
0.0617615195133
-0.0447257153279
-0.0185986182653
0.0040396355011
-0.0635576166045
0.213849749208
-0.254668861608
-0.10304397999
-0.00750234787976
-0.0114299966801
0.102765455179
0.253532742815
-0.00976040293589
0.0739796929325
-0.0026589674905
0.126239050245
-0.024436229423
0.0787142276437
0.147544654752
-0.0203993281524
-0.123884408085
-0.0444488377878
-0.16406119867
-0.233716127169
-0.0182743075241
0.0214940264824
0.0241270816151
-0.00270605865208
-0.190318725655
-0.00104165577819
0.0728164090549
-0.0709275236745
0.0709293979341
0.00305457730725
-0.144692951437
-0.0184477048806
0.0342472959778
-0.00865220610597
-0.00157326148396
-0.0424321372984
0.0233890905183
0.0240455343305
0.141021331888
-0.00219420718222
-0.0544081323697
0.0
0.156725154166
-0.0351398820698
0.0336771185055
-0.00148934675481
-0.0205161341136
0.489096935444
0.180225178351
0.00616647141946
0.184556770789
0.00616647141946
