0.0
-0.0105467823908
0.107509541338
-0.0922967438914
-0.145686081257
0.00679369499984
0.0
0.0461543956193
-0.109104124305
-0.0213110253827
-0.00706816699327
0.028379192376
0.0
-0.062507116118
0.066034566496
-0.00150452052866
0.326440733306
0.180825527318
0.108694839766
0.0278779390787
0.0669520989485
-0.0164639048622
0.268561425426
0.0976950300902
0.0606713991918
0.106712477969
0.00825936071399
0.0160853065659
0.0694674952703
0.157853387081
0.0891631738542
0.0278848193632
0.189148984908
0.151641515422
0.0314595170484
-0.0333219220211
-0.00169141172389
0.022224131529
0.010950896855
-0.0770697865297
0.0104904529832
0.018150065987
0.0998676315946
0.0161040917745
0.0118006516066
-0.0843582412119
-0.028760783506
0.0559571815658
0.0136252537307
-0.107362896039
0.0490375492141
-0.0122781223555
0.0107245818596
0.0344359935926
0.05687323625
0.0197617456398
0.040429850544
0.034234496612
0.0103171816185
0.00354160006853
-0.0732794498006
0.0909540405654
0.170462057683
0.136357698973
9.85545335496e-05
-0.0679692673105
0.0616303590081
-0.00566259292086
0.000590895482407
-0.00696939042495
0.0148905678063
0.0238262677606
0.0765453662928
-0.00568846783568
-0.0204069056874
-0.0470435107792
-0.0663415023016
0.0248817326735
0.030573368578
-0.12498332357
0.107487728877
0.0181014071954
-0.00597826007942
-0.14774693584
-0.0755373606769
-0.0726622707194
-0.11039316873
0.0
0.0739430300184
0.0233357686709
0.0146694124806
-0.111711852977
0.0
-0.0112943929484
0.00997671855094
-0.000118179096481
-0.000858944544661
-0.00328182198246
-0.0284936211997
-0.00241798892142
0.0389617835608
-0.000606842557106
-0.117525567536
0.152034523849
0.0915738273081
-0.111543769158
-0.000441717482331
0.0
-0.00965429977028
-0.000573328440496
-0.000461442126862
-0.0439774658589
-0.0105236029931
0.0674431244348
-0.0134339769342
-0.00291505381769
-0.00163160414224
0.0
0.0
-0.137817972057
0.0
-0.0958064990201
-0.101285312346
-0.158803851382
-0.0109209452597
-0.0726832740566
0.0
-0.0696296124985
-0.100153597643
0.00213530489999
0.0
0.0
0.0
0.0
0.0
0.0317251261649
0.00434942769742
0.0
0.0
0.0
0.0
0.0
0.0
-0.133827567438
0.0
0.0
0.0
0.0
0.0
0.0
0.0
0.0
0.0598557821978
0.0
0.0
0.0
0.0
0.0
0.0
-0.0632601583529
0.0
0.0
0.0
0.0
0.0
0.0
0.0
0.0
0.0
0.0
0.0
0.0
0.0
0.0
0.0
0.020829230626
0.0485958506203
0.0
0.0
0.0
0.0
0.22238830088
0.0
0.0
0.0
0.0
0.0
0.0
0.0
0.0
0.0
0.0
0.0
0.0
0.0
0.0
0.0837554486239
-0.0150638286945
0.0884927477336
-0.0103265295848
0.0671259851412
-0.0316932921771
0.0490185470128
0.0517079304614
0.0174839416289
-0.0901079573048
0.0438905255036
0.0509746236476
-0.0420376704557
-0.0235575438553
-0.0184097608752
-0.0723859088233
-0.182485615848
0.0336866562801
0.0344723121397
0.0542672127174
-0.0201775089259
0.0417513779846
-0.040691671675
-0.0390920507638
0.0118315183979
-0.0245542737449
-0.0999621796643
0.0993900183361
-0.03493925302
0.0185553102985
-0.0750464792492
-0.0215519159307
0.0169491884829
0.110471607167
0.0
0.111388597284
0.038668566546
0.0845222725109
-0.00576742296764
-0.0757083569899
-0.000118179096481
-0.009482559978
-0.0258532646163
-0.0117683826348
-0.0106609336474
-0.00573214442382
-0.0132879717186
-0.0360846348679
-0.107606342979
0.0414733646696
-0.000118179096481
-0.00319223987147
0.035623670685
-0.0361679598845
0.00107544463516
0.15235619015
-0.00013412617118
-0.00161243746819
-0.229056496328
0.0619765687913
0.097515104008
-0.0819727881874
-0.0018521052457
-0.073454072755
0.00370063809769
-0.0781229660394
-0.034766458464
-0.00495488166073
-0.00126981447905
-0.00142286300879
-0.000118179096481
-0.0367963205475
-0.000297427998636
-0.0567606730771
-0.0221591161749
0.037088252353
-0.0211068508229
-0.0061777091261
-0.00461675146221
-0.00170566612844
-0.00287679718071
0.0
-0.00504307984033
0.104941661847
-0.0371311623174
0.151368888788
0.14593800137
0.0363753687934
-0.0292011424289
0.0
0.0185416918287
0.117089602132
0.0167623517916
0.0557657677369
-0.144459406556
0.0557657677369
0.173619294487
0.00433735886975
0.0745668717738
0.0686947520302
